<?xml version="1.0"?>
<opencv_storage>
<cascade>
  <stageType>BOOST</stageType>
  <featureType>HAAR</featureType>
  <height>24</height>
  <width>24</width>
  <stageParams>
    <boostType>GAB</boostType>
    <minHitRate>9.9500000476837158e-01</minHitRate>
    <maxFalseAlarm>5.0000000000000000e-01</maxFalseAlarm>
    <weightTrimRate>9.4999999999999996e-01</weightTrimRate>
    <maxDepth>1</maxDepth>
    <maxWeakCount>100</maxWeakCount></stageParams>
  <featureParams>
    <maxCatCount>0</maxCatCount>
    <featSize>1</featSize>
    <mode>BASIC</mode></featureParams>
  <stageNum>20</stageNum>
  <stages>
    <!-- stage 0 -->
    <_>
      <maxWeakCount>2</maxWeakCount>
      <stageThreshold>9.9256746470928192e-02</stageThreshold>
      <weakClassifiers>
        <_>
          <internalNodes>
            0 -1 19 -1.7312946915626526e-01</internalNodes>
          <leafValues>
            9.6875000000000000e-01 -8.3870965242385864e-01</leafValues></_>
        <_>
          <internalNodes>
            0 -1 56 7.8964047133922577e-03</internalNodes>
          <leafValues>
            -8.5866844654083252e-01 9.3796640634536743e-01</leafValues></_></weakClassifiers></_>
    <!-- stage 1 -->
    <_>
      <maxWeakCount>2</maxWeakCount>
      <stageThreshold>7.1391604840755463e-02</stageThreshold>
      <weakClassifiers>
        <_>
          <internalNodes>
            0 -1 10 2.1356957033276558e-02</internalNodes>
          <leafValues>
            -8.2758623361587524e-01 9.2857140302658081e-01</leafValues></_>
        <_>
          <internalNodes>
            0 -1 1 -2.9365124180912971e-02</internalNodes>
          <leafValues>
            8.9897781610488892e-01 -8.0470097064971924e-01</leafValues></_></weakClassifiers></_>
    <!-- stage 2 -->
    <_>
      <maxWeakCount>2</maxWeakCount>
      <stageThreshold>8.8964305818080902e-02</stageThreshold>
      <weakClassifiers>
        <_>
          <internalNodes>
            0 -1 75 1.6429226845502853e-02</internalNodes>
          <leafValues>
            -7.0491802692413330e-01 9.1709846258163452e-01</leafValues></_>
        <_>
          <internalNodes>
            0 -1 6 -8.5392467677593231e-02</internalNodes>
          <leafValues>
            7.9388231039047241e-01 -7.2943776845932007e-01</leafValues></_></weakClassifiers></_>
    <!-- stage 3 -->
    <_>
      <maxWeakCount>2</maxWeakCount>
      <stageThreshold>1.7084665596485138e-01</stageThreshold>
      <weakClassifiers>
        <_>
          <internalNodes>
            0 -1 21 5.4615475237369537e-02</internalNodes>
          <leafValues>
            -6.4285713434219360e-01 8.5858583450317383e-01</leafValues></_>
        <_>
          <internalNodes>
            0 -1 52 -7.6701515354216099e-03</internalNodes>
          <leafValues>
            8.5534423589706421e-01 -6.8773919343948364e-01</leafValues></_></weakClassifiers></_>
    <!-- stage 4 -->
    <_>
      <maxWeakCount>2</maxWeakCount>
      <stageThreshold>-4.9832253716886044e-03</stageThreshold>
      <weakClassifiers>
        <_>
          <internalNodes>
            0 -1 15 -1.1668529361486435e-02</internalNodes>
          <leafValues>
            7.8504675626754761e-01 -8.5000002384185791e-01</leafValues></_>
        <_>
          <internalNodes>
            0 -1 38 -2.1393537521362305e-02</internalNodes>
          <leafValues>
            8.4501677751541138e-01 -6.7741829156875610e-01</leafValues></_></weakClassifiers></_>
    <!-- stage 5 -->
    <_>
      <maxWeakCount>2</maxWeakCount>
      <stageThreshold>3.0151093006134033e-01</stageThreshold>
      <weakClassifiers>
        <_>
          <internalNodes>
            0 -1 69 2.3635409772396088e-02</internalNodes>
          <leafValues>
            -6.2068963050842285e-01 8.6734694242477417e-01</leafValues></_>
        <_>
          <internalNodes>
            0 -1 42 -2.9729081317782402e-02</internalNodes>
          <leafValues>
            9.2220056056976318e-01 -5.0042480230331421e-01</leafValues></_></weakClassifiers></_>
    <!-- stage 6 -->
    <_>
      <maxWeakCount>4</maxWeakCount>
      <stageThreshold>-3.6718526482582092e-01</stageThreshold>
      <weakClassifiers>
        <_>
          <internalNodes>
            0 -1 13 -2.0733367651700974e-02</internalNodes>
          <leafValues>
            7.9807692766189575e-01 -6.9565218687057495e-01</leafValues></_>
        <_>
          <internalNodes>
            0 -1 16 4.4791474938392639e-02</internalNodes>
          <leafValues>
            -7.0648849010467529e-01 6.9130092859268188e-01</leafValues></_>
        <_>
          <internalNodes>
            0 -1 66 3.1774372328072786e-03</internalNodes>
          <leafValues>
            -8.1690734624862671e-01 5.7211655378341675e-01</leafValues></_>
        <_>
          <internalNodes>
            0 -1 11 7.1256636874750257e-04</internalNodes>
          <leafValues>
            -8.8683563470840454e-01 4.5407333970069885e-01</leafValues></_></weakClassifiers></_>
    <!-- stage 7 -->
    <_>
      <maxWeakCount>4</maxWeakCount>
      <stageThreshold>-9.5188729465007782e-02</stageThreshold>
      <weakClassifiers>
        <_>
          <internalNodes>
            0 -1 8 -4.9334723735228181e-04</internalNodes>
          <leafValues>
            7.0925110578536987e-01 -1.</leafValues></_>
        <_>
          <internalNodes>
            0 -1 40 -2.3809080943465233e-02</internalNodes>
          <leafValues>
            7.0241516828536987e-01 -6.2978655099868774e-01</leafValues></_>
        <_>
          <internalNodes>
            0 -1 7 -1.0156577453017235e-02</internalNodes>
          <leafValues>
            5.8733868598937988e-01 -5.2091717720031738e-01</leafValues></_>
        <_>
          <internalNodes>
            0 -1 2 -1.8709152936935425e-03</internalNodes>
          <leafValues>
            4.5037052035331726e-01 -7.6199197769165039e-01</leafValues></_></weakClassifiers></_>
    <!-- stage 8 -->
    <_>
      <maxWeakCount>4</maxWeakCount>
      <stageThreshold>-4.2568114586174488e-03</stageThreshold>
      <weakClassifiers>
        <_>
          <internalNodes>
            0 -1 14 -4.8385187983512878e-02</internalNodes>
          <leafValues>
            7.1171170473098755e-01 -7.5000000000000000e-01</leafValues></_>
        <_>
          <internalNodes>
            0 -1 58 1.7540138214826584e-02</internalNodes>
          <leafValues>
            -7.4254447221755981e-01 5.7572221755981445e-01</leafValues></_>
        <_>
          <internalNodes>
            0 -1 29 -5.8030444197356701e-03</internalNodes>
          <leafValues>
            8.4138816595077515e-01 -4.5246157050132751e-01</leafValues></_>
        <_>
          <internalNodes>
            0 -1 54 5.2723750472068787e-02</internalNodes>
          <leafValues>
            -6.0666948556900024e-01 6.2248259782791138e-01</leafValues></_></weakClassifiers></_>
    <!-- stage 9 -->
    <_>
      <maxWeakCount>3</maxWeakCount>
      <stageThreshold>1.6285287216305733e-02</stageThreshold>
      <weakClassifiers>
        <_>
          <internalNodes>
            0 -1 72 3.8232414517551661e-03</internalNodes>
          <leafValues>
            -4.1818180680274963e-01 7.8894472122192383e-01</leafValues></_>
        <_>
          <internalNodes>
            0 -1 33 -8.6069270968437195e-02</internalNodes>
          <leafValues>
            9.6048980951309204e-01 -2.7822488546371460e-01</leafValues></_>
        <_>
          <internalNodes>
            0 -1 71 3.9503801614046097e-02</internalNodes>
          <leafValues>
            -4.6404287219047546e-01 7.1269202232360840e-01</leafValues></_></weakClassifiers></_>
    <!-- stage 10 -->
    <_>
      <maxWeakCount>5</maxWeakCount>
      <stageThreshold>-3.2481044530868530e-01</stageThreshold>
      <weakClassifiers>
        <_>
          <internalNodes>
            0 -1 74 -6.7313527688384056e-03</internalNodes>
          <leafValues>
            -9.2000001668930054e-01 6.8558949232101440e-01</leafValues></_>
        <_>
          <internalNodes>
            0 -1 43 -3.6624841392040253e-02</internalNodes>
          <leafValues>
            7.7032136917114258e-01 -4.6360048651695251e-01</leafValues></_>
        <_>
          <internalNodes>
            0 -1 46 -1.6990978270769119e-02</internalNodes>
          <leafValues>
            6.8957036733627319e-01 -5.3168368339538574e-01</leafValues></_>
        <_>
          <internalNodes>
            0 -1 26 2.8430622071027756e-02</internalNodes>
          <leafValues>
            -7.2508740425109863e-01 5.2157515287399292e-01</leafValues></_>
        <_>
          <internalNodes>
            0 -1 60 -3.6176782101392746e-02</internalNodes>
          <leafValues>
            6.4774006605148315e-01 -5.3669089078903198e-01</leafValues></_></weakClassifiers></_>
    <!-- stage 11 -->
    <_>
      <maxWeakCount>6</maxWeakCount>
      <stageThreshold>-3.6247897148132324e-01</stageThreshold>
      <weakClassifiers>
        <_>
          <internalNodes>
            0 -1 51 -2.4497366975992918e-03</internalNodes>
          <leafValues>
            7.5845408439636230e-01 -4.8936170339584351e-01</leafValues></_>
        <_>
          <internalNodes>
            0 -1 9 -9.2172846198081970e-03</internalNodes>
          <leafValues>
            6.9497859477996826e-01 -5.2901768684387207e-01</leafValues></_>
        <_>
          <internalNodes>
            0 -1 45 4.8687504604458809e-03</internalNodes>
          <leafValues>
            -4.5760518312454224e-01 7.5384843349456787e-01</leafValues></_>
        <_>
          <internalNodes>
            0 -1 49 1.7255187034606934e-02</internalNodes>
          <leafValues>
            -3.9523723721504211e-01 9.3420624732971191e-01</leafValues></_>
        <_>
          <internalNodes>
            0 -1 48 -3.2511368393898010e-02</internalNodes>
          <leafValues>
            8.7162506580352783e-01 -4.0862378478050232e-01</leafValues></_>
        <_>
          <internalNodes>
            0 -1 37 9.4136747065931559e-04</internalNodes>
          <leafValues>
            -4.7935551404953003e-01 7.0591300725936890e-01</leafValues></_></weakClassifiers></_>
    <!-- stage 12 -->
    <_>
      <maxWeakCount>6</maxWeakCount>
      <stageThreshold>-2.9785636067390442e-01</stageThreshold>
      <weakClassifiers>
        <_>
          <internalNodes>
            0 -1 65 2.3014049511402845e-03</internalNodes>
          <leafValues>
            -4.6666666865348816e-01 7.4162679910659790e-01</leafValues></_>
        <_>
          <internalNodes>
            0 -1 67 -1.0235087946057320e-02</internalNodes>
          <leafValues>
            7.5612276792526245e-01 -3.3694720268249512e-01</leafValues></_>
        <_>
          <internalNodes>
            0 -1 55 -6.5629817545413971e-03</internalNodes>
          <leafValues>
            8.8564091920852661e-01 -2.9211181402206421e-01</leafValues></_>
        <_>
          <internalNodes>
            0 -1 3 -1.2162892520427704e-01</internalNodes>
          <leafValues>
            6.3339167833328247e-01 -4.3680435419082642e-01</leafValues></_>
        <_>
          <internalNodes>
            0 -1 22 1.1201923713088036e-02</internalNodes>
          <leafValues>
            -3.5019779205322266e-01 8.5837697982788086e-01</leafValues></_>
        <_>
          <internalNodes>
            0 -1 83 6.5653270576149225e-04</internalNodes>
          <leafValues>
            -6.5824592113494873e-01 5.1467543840408325e-01</leafValues></_></weakClassifiers></_>
    <!-- stage 13 -->
    <_>
      <maxWeakCount>6</maxWeakCount>
      <stageThreshold>-3.6077737808227539e-02</stageThreshold>
      <weakClassifiers>
        <_>
          <internalNodes>
            0 -1 5 -1.3776008039712906e-02</internalNodes>
          <leafValues>
            7.7999997138977051e-01 -4.0740740299224854e-01</leafValues></_>
        <_>
          <internalNodes>
            0 -1 63 3.4968070685863495e-03</internalNodes>
          <leafValues>
            4.6620678901672363e-01 -8.5141944885253906e-01</leafValues></_>
        <_>
          <internalNodes>
            0 -1 80 1.5191902639344335e-04</internalNodes>
          <leafValues>
            -5.7876914739608765e-01 5.8423823118209839e-01</leafValues></_>
        <_>
          <internalNodes>
            0 -1 79 1.3178816065192223e-02</internalNodes>
          <leafValues>
            -6.8871587514877319e-01 4.2399859428405762e-01</leafValues></_>
        <_>
          <internalNodes>
            0 -1 31 3.1611356884241104e-02</internalNodes>
          <leafValues>
            -4.2073833942413330e-01 7.9047620296478271e-01</leafValues></_>
        <_>
          <internalNodes>
            0 -1 30 -1.2737415963783860e-03</internalNodes>
          <leafValues>
            6.3525062799453735e-01 -5.1830142736434937e-01</leafValues></_></weakClassifiers></_>
    <!-- stage 14 -->
    <_>
      <maxWeakCount>6</maxWeakCount>
      <stageThreshold>-2.2588470578193665e-01</stageThreshold>
      <weakClassifiers>
        <_>
          <internalNodes>
            0 -1 59 -2.7526605874300003e-02</internalNodes>
          <leafValues>
            -8.6206895112991333e-01 7.0666664838790894e-01</leafValues></_>
        <_>
          <internalNodes>
            0 -1 44 -3.2885454595088959e-02</internalNodes>
          <leafValues>
            7.5551933050155640e-01 -4.5523381233215332e-01</leafValues></_>
        <_>
          <internalNodes>
            0 -1 62 -1.1412605643272400e-02</internalNodes>
          <leafValues>
            8.4289467334747314e-01 -3.9393156766891479e-01</leafValues></_>
        <_>
          <internalNodes>
            0 -1 20 -7.8232679516077042e-03</internalNodes>
          <leafValues>
            8.7509220838546753e-01 -3.0203247070312500e-01</leafValues></_>
        <_>
          <internalNodes>
            0 -1 36 -3.5904452204704285e-02</internalNodes>
          <leafValues>
            7.2608935832977295e-01 -3.8945901393890381e-01</leafValues></_>
        <_>
          <internalNodes>
            0 -1 82 2.7206183876842260e-03</internalNodes>
          <leafValues>
            -5.0644904375076294e-01 6.0810548067092896e-01</leafValues></_></weakClassifiers></_>
    <!-- stage 15 -->
    <_>
      <maxWeakCount>5</maxWeakCount>
      <stageThreshold>-5.8400962501764297e-02</stageThreshold>
      <weakClassifiers>
        <_>
          <internalNodes>
            0 -1 77 1.7651773989200592e-02</internalNodes>
          <leafValues>
            -3.3333334326744080e-01 7.9381442070007324e-01</leafValues></_>
        <_>
          <internalNodes>
            0 -1 4 -1.7941938713192940e-02</internalNodes>
          <leafValues>
            6.1600935459136963e-01 -4.9846291542053223e-01</leafValues></_>
        <_>
          <internalNodes>
            0 -1 24 -6.4810395240783691e-02</internalNodes>
          <leafValues>
            8.4132176637649536e-01 -3.6832809448242188e-01</leafValues></_>
        <_>
          <internalNodes>
            0 -1 78 -4.4600777328014374e-03</internalNodes>
          <leafValues>
            6.3884419202804565e-01 -4.0328678488731384e-01</leafValues></_>
        <_>
          <internalNodes>
            0 -1 17 1.5936284326016903e-03</internalNodes>
          <leafValues>
            -6.1159306764602661e-01 4.6745684742927551e-01</leafValues></_></weakClassifiers></_>
    <!-- stage 16 -->
    <_>
      <maxWeakCount>6</maxWeakCount>
      <stageThreshold>-2.6290646195411682e-01</stageThreshold>
      <weakClassifiers>
        <_>
          <internalNodes>
            0 -1 61 -2.9196266084909439e-02</internalNodes>
          <leafValues>
            -9.1304349899291992e-01 6.7099565267562866e-01</leafValues></_>
        <_>
          <internalNodes>
            0 -1 27 -9.0524315834045410e-02</internalNodes>
          <leafValues>
            9.3965536355972290e-01 -3.0819272994995117e-01</leafValues></_>
        <_>
          <internalNodes>
            0 -1 70 -3.6737810820341110e-02</internalNodes>
          <leafValues>
            5.0888329744338989e-01 -5.8402359485626221e-01</leafValues></_>
        <_>
          <internalNodes>
            0 -1 28 -4.2864950373768806e-03</internalNodes>
          <leafValues>
            7.9360032081604004e-01 -3.6428448557853699e-01</leafValues></_>
        <_>
          <internalNodes>
            0 -1 47 -6.7317351698875427e-02</internalNodes>
          <leafValues>
            9.5567673444747925e-01 -2.9052147269248962e-01</leafValues></_>
        <_>
          <internalNodes>
            0 -1 64 1.1362251825630665e-04</internalNodes>
          <leafValues>
            -4.7978672385215759e-01 6.1386150121688843e-01</leafValues></_></weakClassifiers></_>
    <!-- stage 17 -->
    <_>
      <maxWeakCount>5</maxWeakCount>
      <stageThreshold>-2.7333936095237732e-01</stageThreshold>
      <weakClassifiers>
        <_>
          <internalNodes>
            0 -1 18 -6.4753303304314613e-03</internalNodes>
          <leafValues>
            6.7685592174530029e-01 -8.3999997377395630e-01</leafValues></_>
        <_>
          <internalNodes>
            0 -1 32 -6.2844917178153992e-02</internalNodes>
          <leafValues>
            9.1631084680557251e-01 -3.6252939701080322e-01</leafValues></_>
        <_>
          <internalNodes>
            0 -1 39 1.4190323650836945e-02</internalNodes>
          <leafValues>
            -2.6510027050971985e-01 9.7280228137969971e-01</leafValues></_>
        <_>
          <internalNodes>
            0 -1 23 -1.3922739773988724e-02</internalNodes>
          <leafValues>
            6.6663223505020142e-01 -4.6023711562156677e-01</leafValues></_>
        <_>
          <internalNodes>
            0 -1 57 -3.1349644996225834e-03</internalNodes>
          <leafValues>
            -6.8586152791976929e-01 5.2765810489654541e-01</leafValues></_></weakClassifiers></_>
    <!-- stage 18 -->
    <_>
      <maxWeakCount>6</maxWeakCount>
      <stageThreshold>-2.2054678201675415e-01</stageThreshold>
      <weakClassifiers>
        <_>
          <internalNodes>
            0 -1 41 -8.9062079787254333e-03</internalNodes>
          <leafValues>
            8.9285713434219360e-01 -1.8604651093482971e-01</leafValues></_>
        <_>
          <internalNodes>
            0 -1 53 -7.1496972814202309e-03</internalNodes>
          <leafValues>
            8.8785314559936523e-01 -2.3355995118618011e-01</leafValues></_>
        <_>
          <internalNodes>
            0 -1 68 -1.3306571170687675e-02</internalNodes>
          <leafValues>
            -8.9600920677185059e-01 4.2269632220268250e-01</leafValues></_>
        <_>
          <internalNodes>
            0 -1 35 -4.1660979390144348e-02</internalNodes>
          <leafValues>
            8.5002595186233521e-01 -4.0488713979721069e-01</leafValues></_>
        <_>
          <internalNodes>
            0 -1 25 -1.4264167286455631e-02</internalNodes>
          <leafValues>
            8.6453104019165039e-01 -3.9096593856811523e-01</leafValues></_>
        <_>
          <internalNodes>
            0 -1 12 -1.9618435762822628e-03</internalNodes>
          <leafValues>
            6.3156807422637939e-01 -5.0668722391128540e-01</leafValues></_></weakClassifiers></_>
    <!-- stage 19 -->
    <_>
      <maxWeakCount>6</maxWeakCount>
      <stageThreshold>1.3846315443515778e-01</stageThreshold>
      <weakClassifiers>
        <_>
          <internalNodes>
            0 -1 0 -1.8288934603333473e-02</internalNodes>
          <leafValues>
            7.1428573131561279e-01 -8.6666667461395264e-01</leafValues></_>
        <_>
          <internalNodes>
            0 -1 76 -1.5882229199633002e-03</internalNodes>
          <leafValues>
            6.1415958404541016e-01 -5.0530982017517090e-01</leafValues></_>
        <_>
          <internalNodes>
            0 -1 73 1.1050453409552574e-02</internalNodes>
          <leafValues>
            -4.0909823775291443e-01 6.7017936706542969e-01</leafValues></_>
        <_>
          <internalNodes>
            0 -1 81 1.4817129704169929e-04</internalNodes>
          <leafValues>
            -7.4982517957687378e-01 4.2478841543197632e-01</leafValues></_>
        <_>
          <internalNodes>
            0 -1 34 1.6054417937994003e-02</internalNodes>
          <leafValues>
            -6.3438653945922852e-01 4.2964333295822144e-01</leafValues></_>
        <_>
          <internalNodes>
            0 -1 50 -4.5379512012004852e-03</internalNodes>
          <leafValues>
            7.7961784601211548e-01 -4.2051026225090027e-01</leafValues></_></weakClassifiers></_></stages>
  <features>
    <_>
      <rects>
        <_>
          0 0 8 11 -1.</_>
        <_>
          4 0 4 11 2.</_></rects>
      <tilted>0</tilted></_>
    <_>
      <rects>
        <_>
          0 1 6 14 -1.</_>
        <_>
          3 1 3 14 2.</_></rects>
      <tilted>0</tilted></_>
    <_>
      <rects>
        <_>
          0 3 2 12 -1.</_>
        <_>
          1 3 1 12 2.</_></rects>
      <tilted>0</tilted></_>
    <_>
      <rects>
        <_>
          0 3 21 8 -1.</_>
        <_>
          7 3 7 8 3.</_></rects>
      <tilted>0</tilted></_>
    <_>
      <rects>
        <_>
          0 4 4 11 -1.</_>
        <_>
          2 4 2 11 2.</_></rects>
      <tilted>0</tilted></_>
    <_>
      <rects>
        <_>
          0 4 4 12 -1.</_>
        <_>
          2 4 2 12 2.</_></rects>
      <tilted>0</tilted></_>
    <_>
      <rects>
        <_>
          0 5 21 8 -1.</_>
        <_>
          7 5 7 8 3.</_></rects>
      <tilted>0</tilted></_>
    <_>
      <rects>
        <_>
          0 6 6 8 -1.</_>
        <_>
          0 10 6 4 2.</_></rects>
      <tilted>0</tilted></_>
    <_>
      <rects>
        <_>
          0 8 6 2 -1.</_>
        <_>
          3 8 3 2 2.</_></rects>
      <tilted>0</tilted></_>
    <_>
      <rects>
        <_>
          0 10 4 6 -1.</_>
        <_>
          2 10 2 6 2.</_></rects>
      <tilted>0</tilted></_>
    <_>
      <rects>
        <_>
          0 18 23 6 -1.</_>
        <_>
          0 21 23 3 2.</_></rects>
      <tilted>0</tilted></_>
    <_>
      <rects>
        <_>
          0 20 12 4 -1.</_>
        <_>
          0 22 12 2 2.</_></rects>
      <tilted>0</tilted></_>
    <_>
      <rects>
        <_>
          0 21 8 1 -1.</_>
        <_>
          4 21 4 1 2.</_></rects>
      <tilted>0</tilted></_>
    <_>
      <rects>
        <_>
          1 0 8 10 -1.</_>
        <_>
          5 0 4 10 2.</_></rects>
      <tilted>0</tilted></_>
    <_>
      <rects>
        <_>
          1 0 20 14 -1.</_>
        <_>
          1 7 20 7 2.</_></rects>
      <tilted>0</tilted></_>
    <_>
      <rects>
        <_>
          1 2 6 9 -1.</_>
        <_>
          4 2 3 9 2.</_></rects>
      <tilted>0</tilted></_>
    <_>
      <rects>
        <_>
          1 16 23 6 -1.</_>
        <_>
          1 19 23 3 2.</_></rects>
      <tilted>0</tilted></_>
    <_>
      <rects>
        <_>
          1 22 15 2 -1.</_>
        <_>
          1 23 15 1 2.</_></rects>
      <tilted>0</tilted></_>
    <_>
      <rects>
        <_>
          2 2 6 9 -1.</_>
        <_>
          5 2 3 9 2.</_></rects>
      <tilted>0</tilted></_>
    <_>
      <rects>
        <_>
          3 0 18 24 -1.</_>
        <_>
          3 8 18 8 3.</_></rects>
      <tilted>0</tilted></_>
    <_>
      <rects>
        <_>
          3 12 8 8 -1.</_>
        <_>
          3 12 4 4 2.</_>
        <_>
          7 16 4 4 2.</_></rects>
      <tilted>0</tilted></_>
    <_>
      <rects>
        <_>
          3 16 17 8 -1.</_>
        <_>
          3 20 17 4 2.</_></rects>
      <tilted>0</tilted></_>
    <_>
      <rects>
        <_>
          4 2 3 9 -1.</_>
        <_>
          4 5 3 3 3.</_></rects>
      <tilted>0</tilted></_>
    <_>
      <rects>
        <_>
          4 5 1 18 -1.</_>
        <_>
          4 11 1 6 3.</_></rects>
      <tilted>0</tilted></_>
    <_>
      <rects>
        <_>
          4 5 18 9 -1.</_>
        <_>
          4 8 18 3 3.</_></rects>
      <tilted>0</tilted></_>
    <_>
      <rects>
        <_>
          4 7 6 11 -1.</_>
        <_>
          6 7 2 11 3.</_></rects>
      <tilted>0</tilted></_>
    <_>
      <rects>
        <_>
          4 18 14 6 -1.</_>
        <_>
          4 21 14 3 2.</_></rects>
      <tilted>0</tilted></_>
    <_>
      <rects>
        <_>
          5 0 12 18 -1.</_>
        <_>
          9 0 4 18 3.</_></rects>
      <tilted>0</tilted></_>
    <_>
      <rects>
        <_>
          5 5 10 1 -1.</_>
        <_>
          10 5 5 1 2.</_></rects>
      <tilted>0</tilted></_>
    <_>
      <rects>
        <_>
          5 5 5 4 -1.</_>
        <_>
          5 7 5 2 2.</_></rects>
      <tilted>0</tilted></_>
    <_>
      <rects>
        <_>
          5 7 3 2 -1.</_>
        <_>
          5 8 3 1 2.</_></rects>
      <tilted>0</tilted></_>
    <_>
      <rects>
        <_>
          5 8 13 8 -1.</_>
        <_>
          5 12 13 4 2.</_></rects>
      <tilted>0</tilted></_>
    <_>
      <rects>
        <_>
          5 9 12 8 -1.</_>
        <_>
          9 9 4 8 3.</_></rects>
      <tilted>0</tilted></_>
    <_>
      <rects>
        <_>
          5 10 15 7 -1.</_>
        <_>
          10 10 5 7 3.</_></rects>
      <tilted>0</tilted></_>
    <_>
      <rects>
        <_>
          5 19 19 4 -1.</_>
        <_>
          5 21 19 2 2.</_></rects>
      <tilted>0</tilted></_>
    <_>
      <rects>
        <_>
          6 1 9 16 -1.</_>
        <_>
          9 1 3 16 3.</_></rects>
      <tilted>0</tilted></_>
    <_>
      <rects>
        <_>
          6 8 9 11 -1.</_>
        <_>
          9 8 3 11 3.</_></rects>
      <tilted>0</tilted></_>
    <_>
      <rects>
        <_>
          6 14 1 4 -1.</_>
        <_>
          6 16 1 2 2.</_></rects>
      <tilted>0</tilted></_>
    <_>
      <rects>
        <_>
          7 9 9 14 -1.</_>
        <_>
          10 9 3 14 3.</_></rects>
      <tilted>0</tilted></_>
    <_>
      <rects>
        <_>
          7 9 5 9 -1.</_>
        <_>
          7 12 5 3 3.</_></rects>
      <tilted>0</tilted></_>
    <_>
      <rects>
        <_>
          7 10 9 11 -1.</_>
        <_>
          10 10 3 11 3.</_></rects>
      <tilted>0</tilted></_>
    <_>
      <rects>
        <_>
          7 12 9 3 -1.</_>
        <_>
          10 12 3 3 3.</_></rects>
      <tilted>0</tilted></_>
    <_>
      <rects>
        <_>
          8 8 9 11 -1.</_>
        <_>
          11 8 3 11 3.</_></rects>
      <tilted>0</tilted></_>
    <_>
      <rects>
        <_>
          8 9 9 10 -1.</_>
        <_>
          11 9 3 10 3.</_></rects>
      <tilted>0</tilted></_>
    <_>
      <rects>
        <_>
          8 10 9 13 -1.</_>
        <_>
          11 10 3 13 3.</_></rects>
      <tilted>0</tilted></_>
    <_>
      <rects>
        <_>
          8 10 8 4 -1.</_>
        <_>
          8 12 8 2 2.</_></rects>
      <tilted>0</tilted></_>
    <_>
      <rects>
        <_>
          9 4 3 12 -1.</_>
        <_>
          9 8 3 4 3.</_></rects>
      <tilted>0</tilted></_>
    <_>
      <rects>
        <_>
          9 8 12 10 -1.</_>
        <_>
          13 8 4 10 3.</_></rects>
      <tilted>0</tilted></_>
    <_>
      <rects>
        <_>
          9 9 9 11 -1.</_>
        <_>
          12 9 3 11 3.</_></rects>
      <tilted>0</tilted></_>
    <_>
      <rects>
        <_>
          9 10 8 5 -1.</_>
        <_>
          13 10 4 5 2.</_></rects>
      <tilted>0</tilted></_>
    <_>
      <rects>
        <_>
          10 14 6 2 -1.</_>
        <_>
          12 14 2 2 3.</_></rects>
      <tilted>0</tilted></_>
    <_>
      <rects>
        <_>
          11 3 1 10 -1.</_>
        <_>
          11 8 1 5 2.</_></rects>
      <tilted>0</tilted></_>
    <_>
      <rects>
        <_>
          11 3 1 18 -1.</_>
        <_>
          11 9 1 6 3.</_></rects>
      <tilted>0</tilted></_>
    <_>
      <rects>
        <_>
          11 10 6 9 -1.</_>
        <_>
          13 10 2 9 3.</_></rects>
      <tilted>0</tilted></_>
    <_>
      <rects>
        <_>
          11 16 12 8 -1.</_>
        <_>
          11 20 12 4 2.</_></rects>
      <tilted>0</tilted></_>
    <_>
      <rects>
        <_>
          12 13 5 6 -1.</_>
        <_>
          12 15 5 2 3.</_></rects>
      <tilted>0</tilted></_>
    <_>
      <rects>
        <_>
          14 0 10 8 -1.</_>
        <_>
          19 0 5 8 2.</_></rects>
      <tilted>0</tilted></_>
    <_>
      <rects>
        <_>
          14 5 10 4 -1.</_>
        <_>
          14 5 5 2 2.</_>
        <_>
          19 7 5 2 2.</_></rects>
      <tilted>0</tilted></_>
    <_>
      <rects>
        <_>
          15 0 8 9 -1.</_>
        <_>
          19 0 4 9 2.</_></rects>
      <tilted>0</tilted></_>
    <_>
      <rects>
        <_>
          15 1 9 7 -1.</_>
        <_>
          18 1 3 7 3.</_></rects>
      <tilted>0</tilted></_>
    <_>
      <rects>
        <_>
          15 10 9 13 -1.</_>
        <_>
          18 10 3 13 3.</_></rects>
      <tilted>0</tilted></_>
    <_>
      <rects>
        <_>
          15 17 9 4 -1.</_>
        <_>
          18 17 3 4 3.</_></rects>
      <tilted>0</tilted></_>
    <_>
      <rects>
        <_>
          16 12 6 5 -1.</_>
        <_>
          18 12 2 5 3.</_></rects>
      <tilted>0</tilted></_>
    <_>
      <rects>
        <_>
          16 21 3 3 -1.</_>
        <_>
          16 22 3 1 3.</_></rects>
      <tilted>0</tilted></_>
    <_>
      <rects>
        <_>
          17 0 2 1 -1.</_>
        <_>
          18 0 1 1 2.</_></rects>
      <tilted>0</tilted></_>
    <_>
      <rects>
        <_>
          17 0 4 8 -1.</_>
        <_>
          19 0 2 8 2.</_></rects>
      <tilted>0</tilted></_>
    <_>
      <rects>
        <_>
          17 0 4 9 -1.</_>
        <_>
          19 0 2 9 2.</_></rects>
      <tilted>0</tilted></_>
    <_>
      <rects>
        <_>
          17 11 6 6 -1.</_>
        <_>
          19 11 2 6 3.</_></rects>
      <tilted>0</tilted></_>
    <_>
      <rects>
        <_>
          18 0 6 10 -1.</_>
        <_>
          20 0 2 10 3.</_></rects>
      <tilted>0</tilted></_>
    <_>
      <rects>
        <_>
          18 3 6 16 -1.</_>
        <_>
          21 3 3 16 2.</_></rects>
      <tilted>0</tilted></_>
    <_>
      <rects>
        <_>
          18 4 4 18 -1.</_>
        <_>
          18 10 4 6 3.</_></rects>
      <tilted>0</tilted></_>
    <_>
      <rects>
        <_>
          18 6 6 10 -1.</_>
        <_>
          21 6 3 10 2.</_></rects>
      <tilted>0</tilted></_>
    <_>
      <rects>
        <_>
          19 0 4 9 -1.</_>
        <_>
          21 0 2 9 2.</_></rects>
      <tilted>0</tilted></_>
    <_>
      <rects>
        <_>
          19 10 4 5 -1.</_>
        <_>
          21 10 2 5 2.</_></rects>
      <tilted>0</tilted></_>
    <_>
      <rects>
        <_>
          19 15 5 8 -1.</_>
        <_>
          19 19 5 4 2.</_></rects>
      <tilted>0</tilted></_>
    <_>
      <rects>
        <_>
          20 0 4 24 -1.</_>
        <_>
          22 0 2 24 2.</_></rects>
      <tilted>0</tilted></_>
    <_>
      <rects>
        <_>
          20 5 1 8 -1.</_>
        <_>
          20 9 1 4 2.</_></rects>
      <tilted>0</tilted></_>
    <_>
      <rects>
        <_>
          20 6 4 13 -1.</_>
        <_>
          22 6 2 13 2.</_></rects>
      <tilted>0</tilted></_>
    <_>
      <rects>
        <_>
          20 9 1 12 -1.</_>
        <_>
          20 13 1 4 3.</_></rects>
      <tilted>0</tilted></_>
    <_>
      <rects>
        <_>
          20 9 4 10 -1.</_>
        <_>
          22 9 2 10 2.</_></rects>
      <tilted>0</tilted></_>
    <_>
      <rects>
        <_>
          21 15 1 4 -1.</_>
        <_>
          21 17 1 2 2.</_></rects>
      <tilted>0</tilted></_>
    <_>
      <rects>
        <_>
          22 0 2 9 -1.</_>
        <_>
          23 0 1 9 2.</_></rects>
      <tilted>0</tilted></_>
    <_>
      <rects>
        <_>
          22 0 2 12 -1.</_>
        <_>
          23 0 1 12 2.</_></rects>
      <tilted>0</tilted></_>
    <_>
      <rects>
        <_>
          22 15 2 6 -1.</_>
        <_>
          23 15 1 6 2.</_></rects>
      <tilted>0</tilted></_></features></cascade>
</opencv_storage>
