<?xml version="1.0"?>
<opencv_storage>
<cascade>
  <stageType>BOOST</stageType>
  <featureType>HAAR</featureType>
  <height>24</height>
  <width>24</width>
  <stageParams>
    <boostType>GAB</boostType>
    <minHitRate>9.9500000476837158e-01</minHitRate>
    <maxFalseAlarm>5.0000000000000000e-01</maxFalseAlarm>
    <weightTrimRate>9.4999999999999996e-01</weightTrimRate>
    <maxDepth>1</maxDepth>
    <maxWeakCount>100</maxWeakCount></stageParams>
  <featureParams>
    <maxCatCount>0</maxCatCount>
    <featSize>1</featSize>
    <mode>BASIC</mode></featureParams>
  <stageNum>19</stageNum>
  <stages>
    <!-- stage 0 -->
    <_>
      <maxWeakCount>1</maxWeakCount>
      <stageThreshold>9.1549295186996460e-01</stageThreshold>
      <weakClassifiers>
        <_>
          <internalNodes>
            0 -1 15 1.4015507698059082e-01</internalNodes>
          <leafValues>
            -1. 9.1549295186996460e-01</leafValues></_></weakClassifiers></_>
    <!-- stage 1 -->
    <_>
      <maxWeakCount>2</maxWeakCount>
      <stageThreshold>-8.6740441620349884e-02</stageThreshold>
      <weakClassifiers>
        <_>
          <internalNodes>
            0 -1 5 -1.7816904932260513e-02</internalNodes>
          <leafValues>
            8.7323945760726929e-01 -8.8888889551162720e-01</leafValues></_>
        <_>
          <internalNodes>
            0 -1 18 1.7653014510869980e-02</internalNodes>
          <leafValues>
            -8.4956896305084229e-01 8.0214846134185791e-01</leafValues></_></weakClassifiers></_>
    <!-- stage 2 -->
    <_>
      <maxWeakCount>2</maxWeakCount>
      <stageThreshold>8.5596991702914238e-03</stageThreshold>
      <weakClassifiers>
        <_>
          <internalNodes>
            0 -1 27 1.1298300698399544e-02</internalNodes>
          <leafValues>
            -7.3770493268966675e-01 8.9629632234573364e-01</leafValues></_>
        <_>
          <internalNodes>
            0 -1 41 -1.3064470142126083e-02</internalNodes>
          <leafValues>
            7.8195053339004517e-01 -8.8773661851882935e-01</leafValues></_></weakClassifiers></_>
    <!-- stage 3 -->
    <_>
      <maxWeakCount>2</maxWeakCount>
      <stageThreshold>-9.5694504678249359e-02</stageThreshold>
      <weakClassifiers>
        <_>
          <internalNodes>
            0 -1 39 2.5729842018336058e-03</internalNodes>
          <leafValues>
            -8.8461536169052124e-01 8.4722220897674561e-01</leafValues></_>
        <_>
          <internalNodes>
            0 -1 9 -4.5072153210639954e-02</internalNodes>
          <leafValues>
            7.8892087936401367e-01 -9.3530440330505371e-01</leafValues></_></weakClassifiers></_>
    <!-- stage 4 -->
    <_>
      <maxWeakCount>2</maxWeakCount>
      <stageThreshold>7.8852057456970215e-02</stageThreshold>
      <weakClassifiers>
        <_>
          <internalNodes>
            0 -1 20 1.6037799417972565e-02</internalNodes>
          <leafValues>
            -4.7368422150611877e-01 9.3333333730697632e-01</leafValues></_>
        <_>
          <internalNodes>
            0 -1 11 4.1606165468692780e-03</internalNodes>
          <leafValues>
            -8.5448127985000610e-01 7.6541715860366821e-01</leafValues></_></weakClassifiers></_>
    <!-- stage 5 -->
    <_>
      <maxWeakCount>3</maxWeakCount>
      <stageThreshold>4.4058255851268768e-02</stageThreshold>
      <weakClassifiers>
        <_>
          <internalNodes>
            0 -1 21 -1.7592828720808029e-02</internalNodes>
          <leafValues>
            9.6521741151809692e-01 -4.3209877610206604e-01</leafValues></_>
        <_>
          <internalNodes>
            0 -1 13 -9.9790748208761215e-03</internalNodes>
          <leafValues>
            9.7877538204193115e-01 -4.0360489487648010e-01</leafValues></_>
        <_>
          <internalNodes>
            0 -1 35 1.3499666005373001e-02</internalNodes>
          <leafValues>
            -5.0261837244033813e-01 9.1744750738143921e-01</leafValues></_></weakClassifiers></_>
    <!-- stage 6 -->
    <_>
      <maxWeakCount>2</maxWeakCount>
      <stageThreshold>-8.2512430846691132e-02</stageThreshold>
      <weakClassifiers>
        <_>
          <internalNodes>
            0 -1 26 -1.9705952145159245e-03</internalNodes>
          <leafValues>
            7.3076921701431274e-01 -9.4999998807907104e-01</leafValues></_>
        <_>
          <internalNodes>
            0 -1 14 2.3532556369900703e-02</internalNodes>
          <leafValues>
            -6.6314780712127686e-01 8.6748754978179932e-01</leafValues></_></weakClassifiers></_>
    <!-- stage 7 -->
    <_>
      <maxWeakCount>2</maxWeakCount>
      <stageThreshold>-1.9991736114025116e-01</stageThreshold>
      <weakClassifiers>
        <_>
          <internalNodes>
            0 -1 31 -2.3446006234735250e-03</internalNodes>
          <leafValues>
            -9.5121949911117554e-01 7.4193549156188965e-01</leafValues></_>
        <_>
          <internalNodes>
            0 -1 30 5.0792675465345383e-02</internalNodes>
          <leafValues>
            -7.7498787641525269e-01 7.5130218267440796e-01</leafValues></_></weakClassifiers></_>
    <!-- stage 8 -->
    <_>
      <maxWeakCount>4</maxWeakCount>
      <stageThreshold>1.5291945636272430e-01</stageThreshold>
      <weakClassifiers>
        <_>
          <internalNodes>
            0 -1 43 3.2362379133701324e-02</internalNodes>
          <leafValues>
            -5.9375000000000000e-01 8.6363637447357178e-01</leafValues></_>
        <_>
          <internalNodes>
            0 -1 17 3.0580956488847733e-02</internalNodes>
          <leafValues>
            -7.0839911699295044e-01 8.1869202852249146e-01</leafValues></_>
        <_>
          <internalNodes>
            0 -1 22 -1.8406575545668602e-02</internalNodes>
          <leafValues>
            6.5251827239990234e-01 -8.6942839622497559e-01</leafValues></_>
        <_>
          <internalNodes>
            0 -1 20 2.3364106193184853e-02</internalNodes>
          <leafValues>
            -6.1422735452651978e-01 8.0255031585693359e-01</leafValues></_></weakClassifiers></_>
    <!-- stage 9 -->
    <_>
      <maxWeakCount>3</maxWeakCount>
      <stageThreshold>-1.1864556372165680e-01</stageThreshold>
      <weakClassifiers>
        <_>
          <internalNodes>
            0 -1 25 5.3022308275103569e-03</internalNodes>
          <leafValues>
            -4.6666666865348816e-01 9.1735535860061646e-01</leafValues></_>
        <_>
          <internalNodes>
            0 -1 0 -4.6556625515222549e-02</internalNodes>
          <leafValues>
            8.7915951013565063e-01 -6.2042123079299927e-01</leafValues></_>
        <_>
          <internalNodes>
            0 -1 29 1.8412087112665176e-02</internalNodes>
          <leafValues>
            -4.1557967662811279e-01 1.</leafValues></_></weakClassifiers></_>
    <!-- stage 10 -->
    <_>
      <maxWeakCount>2</maxWeakCount>
      <stageThreshold>2.3161324858665466e-01</stageThreshold>
      <weakClassifiers>
        <_>
          <internalNodes>
            0 -1 40 5.6668594479560852e-03</internalNodes>
          <leafValues>
            -6.9811320304870605e-01 7.9020977020263672e-01</leafValues></_>
        <_>
          <internalNodes>
            0 -1 19 1.1903984472155571e-02</internalNodes>
          <leafValues>
            -4.6520805358886719e-01 9.2972648143768311e-01</leafValues></_></weakClassifiers></_>
    <!-- stage 11 -->
    <_>
      <maxWeakCount>4</maxWeakCount>
      <stageThreshold>2.8922286629676819e-01</stageThreshold>
      <weakClassifiers>
        <_>
          <internalNodes>
            0 -1 42 4.2660012841224670e-02</internalNodes>
          <leafValues>
            -4.2857143282890320e-01 9.1596639156341553e-01</leafValues></_>
        <_>
          <internalNodes>
            0 -1 4 -1.4571874402463436e-02</internalNodes>
          <leafValues>
            7.7266275882720947e-01 -6.5154266357421875e-01</leafValues></_>
        <_>
          <internalNodes>
            0 -1 24 -4.0625464171171188e-03</internalNodes>
          <leafValues>
            -8.8122445344924927e-01 6.3463801145553589e-01</leafValues></_>
        <_>
          <internalNodes>
            0 -1 12 -6.6235825419425964e-02</internalNodes>
          <leafValues>
            9.7122311592102051e-01 -5.1818186044692993e-01</leafValues></_></weakClassifiers></_>
    <!-- stage 12 -->
    <_>
      <maxWeakCount>4</maxWeakCount>
      <stageThreshold>-1.5884989500045776e-01</stageThreshold>
      <weakClassifiers>
        <_>
          <internalNodes>
            0 -1 38 -7.7734091319143772e-03</internalNodes>
          <leafValues>
            8.3216780424118042e-01 -8.1132078170776367e-01</leafValues></_>
        <_>
          <internalNodes>
            0 -1 33 -3.0787624418735504e-03</internalNodes>
          <leafValues>
            -9.0870749950408936e-01 6.8324321508407593e-01</leafValues></_>
        <_>
          <internalNodes>
            0 -1 34 -3.9158663712441921e-03</internalNodes>
          <leafValues>
            -6.7883682250976563e-01 7.2940492630004883e-01</leafValues></_>
        <_>
          <internalNodes>
            0 -1 32 5.0237318500876427e-03</internalNodes>
          <leafValues>
            -7.6017731428146362e-01 7.2263801097869873e-01</leafValues></_></weakClassifiers></_>
    <!-- stage 13 -->
    <_>
      <maxWeakCount>2</maxWeakCount>
      <stageThreshold>-2.3198278248310089e-01</stageThreshold>
      <weakClassifiers>
        <_>
          <internalNodes>
            0 -1 6 -1.9867269322276115e-02</internalNodes>
          <leafValues>
            8.1208056211471558e-01 -9.5744681358337402e-01</leafValues></_>
        <_>
          <internalNodes>
            0 -1 10 3.9413325488567352e-02</internalNodes>
          <leafValues>
            -9.7766870260238647e-01 7.2546404600143433e-01</leafValues></_></weakClassifiers></_>
    <!-- stage 14 -->
    <_>
      <maxWeakCount>1</maxWeakCount>
      <stageThreshold>8.2550334930419922e-01</stageThreshold>
      <weakClassifiers>
        <_>
          <internalNodes>
            0 -1 45 3.2253528479486704e-03</internalNodes>
          <leafValues>
            8.2550334930419922e-01 -1.</leafValues></_></weakClassifiers></_>
    <!-- stage 15 -->
    <_>
      <maxWeakCount>4</maxWeakCount>
      <stageThreshold>-2.4121403694152832e-01</stageThreshold>
      <weakClassifiers>
        <_>
          <internalNodes>
            0 -1 2 -7.1234747767448425e-02</internalNodes>
          <leafValues>
            -7.4545454978942871e-01 8.2978725433349609e-01</leafValues></_>
        <_>
          <internalNodes>
            0 -1 16 6.6367909312248230e-02</internalNodes>
          <leafValues>
            -7.3729157447814941e-01 7.9148596525192261e-01</leafValues></_>
        <_>
          <internalNodes>
            0 -1 8 -7.5112720951437950e-03</internalNodes>
          <leafValues>
            -7.8306341171264648e-01 6.0526520013809204e-01</leafValues></_>
        <_>
          <internalNodes>
            0 -1 37 -2.0219334401190281e-03</internalNodes>
          <leafValues>
            -8.5898613929748535e-01 6.3626688718795776e-01</leafValues></_></weakClassifiers></_>
    <!-- stage 16 -->
    <_>
      <maxWeakCount>3</maxWeakCount>
      <stageThreshold>-5.3576862812042236e-01</stageThreshold>
      <weakClassifiers>
        <_>
          <internalNodes>
            0 -1 1 8.2001298666000366e-02</internalNodes>
          <leafValues>
            6.9811320304870605e-01 -9.4594591856002808e-01</leafValues></_>
        <_>
          <internalNodes>
            0 -1 36 4.9079753458499908e-02</internalNodes>
          <leafValues>
            -5.7467836141586304e-01 8.2782769203186035e-01</leafValues></_>
        <_>
          <internalNodes>
            0 -1 23 -1.7963081598281860e-02</internalNodes>
          <leafValues>
            6.6896337270736694e-01 -6.5920346975326538e-01</leafValues></_></weakClassifiers></_>
    <!-- stage 17 -->
    <_>
      <maxWeakCount>3</maxWeakCount>
      <stageThreshold>7.3146605491638184e-01</stageThreshold>
      <weakClassifiers>
        <_>
          <internalNodes>
            0 -1 7 -2.3517770692706108e-02</internalNodes>
          <leafValues>
            -9.1111111640930176e-01 7.7483445405960083e-01</leafValues></_>
        <_>
          <internalNodes>
            0 -1 28 2.5540678761899471e-03</internalNodes>
          <leafValues>
            7.7943331003189087e-01 -9.2317909002304077e-01</leafValues></_>
        <_>
          <internalNodes>
            0 -1 44 2.1428491920232773e-02</internalNodes>
          <leafValues>
            -6.6047960519790649e-01 8.7981069087982178e-01</leafValues></_></weakClassifiers></_>
    <!-- stage 18 -->
    <_>
      <maxWeakCount>1</maxWeakCount>
      <stageThreshold>7.6623374223709106e-01</stageThreshold>
      <weakClassifiers>
        <_>
          <internalNodes>
            0 -1 3 -1.4693377539515495e-02</internalNodes>
          <leafValues>
            -1. 7.6623374223709106e-01</leafValues></_></weakClassifiers></_></stages>
  <features>
    <_>
      <rects>
        <_>
          0 3 6 17 -1.</_>
        <_>
          3 3 3 17 2.</_></rects>
      <tilted>0</tilted></_>
    <_>
      <rects>
        <_>
          0 3 12 21 -1.</_>
        <_>
          0 10 12 7 3.</_></rects>
      <tilted>0</tilted></_>
    <_>
      <rects>
        <_>
          0 10 13 14 -1.</_>
        <_>
          0 17 13 7 2.</_></rects>
      <tilted>0</tilted></_>
    <_>
      <rects>
        <_>
          0 12 22 6 -1.</_>
        <_>
          0 12 11 3 2.</_>
        <_>
          11 15 11 3 2.</_></rects>
      <tilted>0</tilted></_>
    <_>
      <rects>
        <_>
          0 20 12 3 -1.</_>
        <_>
          6 20 6 3 2.</_></rects>
      <tilted>0</tilted></_>
    <_>
      <rects>
        <_>
          0 20 24 4 -1.</_>
        <_>
          8 20 8 4 3.</_></rects>
      <tilted>0</tilted></_>
    <_>
      <rects>
        <_>
          1 0 22 6 -1.</_>
        <_>
          1 3 22 3 2.</_></rects>
      <tilted>0</tilted></_>
    <_>
      <rects>
        <_>
          1 5 8 12 -1.</_>
        <_>
          1 9 8 4 3.</_></rects>
      <tilted>0</tilted></_>
    <_>
      <rects>
        <_>
          1 6 8 9 -1.</_>
        <_>
          1 9 8 3 3.</_></rects>
      <tilted>0</tilted></_>
    <_>
      <rects>
        <_>
          1 12 12 12 -1.</_>
        <_>
          1 12 6 6 2.</_>
        <_>
          7 18 6 6 2.</_></rects>
      <tilted>0</tilted></_>
    <_>
      <rects>
        <_>
          1 12 21 2 -1.</_>
        <_>
          8 12 7 2 3.</_></rects>
      <tilted>0</tilted></_>
    <_>
      <rects>
        <_>
          2 0 14 6 -1.</_>
        <_>
          2 0 7 3 2.</_>
        <_>
          9 3 7 3 2.</_></rects>
      <tilted>0</tilted></_>
    <_>
      <rects>
        <_>
          2 2 6 12 -1.</_>
        <_>
          4 2 2 12 3.</_></rects>
      <tilted>0</tilted></_>
    <_>
      <rects>
        <_>
          2 5 4 7 -1.</_>
        <_>
          4 5 2 7 2.</_></rects>
      <tilted>0</tilted></_>
    <_>
      <rects>
        <_>
          2 20 19 4 -1.</_>
        <_>
          2 22 19 2 2.</_></rects>
      <tilted>0</tilted></_>
    <_>
      <rects>
        <_>
          3 3 18 13 -1.</_>
        <_>
          9 3 6 13 3.</_></rects>
      <tilted>0</tilted></_>
    <_>
      <rects>
        <_>
          3 14 18 4 -1.</_>
        <_>
          9 14 6 4 3.</_></rects>
      <tilted>0</tilted></_>
    <_>
      <rects>
        <_>
          4 6 9 9 -1.</_>
        <_>
          7 6 3 9 3.</_></rects>
      <tilted>0</tilted></_>
    <_>
      <rects>
        <_>
          4 7 9 8 -1.</_>
        <_>
          7 7 3 8 3.</_></rects>
      <tilted>0</tilted></_>
    <_>
      <rects>
        <_>
          4 10 6 7 -1.</_>
        <_>
          6 10 2 7 3.</_></rects>
      <tilted>0</tilted></_>
    <_>
      <rects>
        <_>
          4 20 16 4 -1.</_>
        <_>
          4 22 16 2 2.</_></rects>
      <tilted>0</tilted></_>
    <_>
      <rects>
        <_>
          5 18 10 6 -1.</_>
        <_>
          5 20 10 2 3.</_></rects>
      <tilted>0</tilted></_>
    <_>
      <rects>
        <_>
          6 14 15 8 -1.</_>
        <_>
          6 18 15 4 2.</_></rects>
      <tilted>0</tilted></_>
    <_>
      <rects>
        <_>
          8 1 16 9 -1.</_>
        <_>
          8 4 16 3 3.</_></rects>
      <tilted>0</tilted></_>
    <_>
      <rects>
        <_>
          8 8 4 16 -1.</_>
        <_>
          8 8 2 8 2.</_>
        <_>
          10 16 2 8 2.</_></rects>
      <tilted>0</tilted></_>
    <_>
      <rects>
        <_>
          8 13 3 9 -1.</_>
        <_>
          8 16 3 3 3.</_></rects>
      <tilted>0</tilted></_>
    <_>
      <rects>
        <_>
          9 1 15 6 -1.</_>
        <_>
          9 4 15 3 2.</_></rects>
      <tilted>0</tilted></_>
    <_>
      <rects>
        <_>
          9 11 4 12 -1.</_>
        <_>
          9 15 4 4 3.</_></rects>
      <tilted>0</tilted></_>
    <_>
      <rects>
        <_>
          10 6 2 18 -1.</_>
        <_>
          10 6 1 9 2.</_>
        <_>
          11 15 1 9 2.</_></rects>
      <tilted>0</tilted></_>
    <_>
      <rects>
        <_>
          10 14 5 9 -1.</_>
        <_>
          10 17 5 3 3.</_></rects>
      <tilted>0</tilted></_>
    <_>
      <rects>
        <_>
          10 14 12 10 -1.</_>
        <_>
          10 14 6 5 2.</_>
        <_>
          16 19 6 5 2.</_></rects>
      <tilted>0</tilted></_>
    <_>
      <rects>
        <_>
          11 4 6 4 -1.</_>
        <_>
          13 4 2 4 3.</_></rects>
      <tilted>0</tilted></_>
    <_>
      <rects>
        <_>
          11 9 1 15 -1.</_>
        <_>
          11 14 1 5 3.</_></rects>
      <tilted>0</tilted></_>
    <_>
      <rects>
        <_>
          12 0 2 24 -1.</_>
        <_>
          12 0 1 12 2.</_>
        <_>
          13 12 1 12 2.</_></rects>
      <tilted>0</tilted></_>
    <_>
      <rects>
        <_>
          12 5 4 8 -1.</_>
        <_>
          14 5 2 8 2.</_></rects>
      <tilted>0</tilted></_>
    <_>
      <rects>
        <_>
          12 6 9 4 -1.</_>
        <_>
          15 6 3 4 3.</_></rects>
      <tilted>0</tilted></_>
    <_>
      <rects>
        <_>
          13 14 8 10 -1.</_>
        <_>
          13 14 4 5 2.</_>
        <_>
          17 19 4 5 2.</_></rects>
      <tilted>0</tilted></_>
    <_>
      <rects>
        <_>
          14 0 6 1 -1.</_>
        <_>
          17 0 3 1 2.</_></rects>
      <tilted>0</tilted></_>
    <_>
      <rects>
        <_>
          14 9 2 14 -1.</_>
        <_>
          14 16 2 7 2.</_></rects>
      <tilted>0</tilted></_>
    <_>
      <rects>
        <_>
          16 12 8 12 -1.</_>
        <_>
          16 18 8 6 2.</_></rects>
      <tilted>0</tilted></_>
    <_>
      <rects>
        <_>
          16 16 7 8 -1.</_>
        <_>
          16 20 7 4 2.</_></rects>
      <tilted>0</tilted></_>
    <_>
      <rects>
        <_>
          17 0 5 10 -1.</_>
        <_>
          17 5 5 5 2.</_></rects>
      <tilted>0</tilted></_>
    <_>
      <rects>
        <_>
          18 7 6 11 -1.</_>
        <_>
          21 7 3 11 2.</_></rects>
      <tilted>0</tilted></_>
    <_>
      <rects>
        <_>
          18 7 6 14 -1.</_>
        <_>
          21 7 3 14 2.</_></rects>
      <tilted>0</tilted></_>
    <_>
      <rects>
        <_>
          18 14 3 10 -1.</_>
        <_>
          18 19 3 5 2.</_></rects>
      <tilted>0</tilted></_>
    <_>
      <rects>
        <_>
          23 16 1 8 -1.</_>
        <_>
          23 20 1 4 2.</_></rects>
      <tilted>0</tilted></_></features></cascade>
</opencv_storage>
